<?xml version="1.0"?>
<opencv_storage>
<cascade>
  <stageType>BOOST</stageType>
  <featureType>HAAR</featureType>
  <height>24</height>
  <width>24</width>
  <stageParams>
    <boostType>GAB</boostType>
    <minHitRate>9.9900001287460327e-01</minHitRate>
    <maxFalseAlarm>3.0000001192092896e-01</maxFalseAlarm>
    <weightTrimRate>9.4999999999999996e-01</weightTrimRate>
    <maxDepth>1</maxDepth>
    <maxWeakCount>100</maxWeakCount></stageParams>
  <featureParams>
    <maxCatCount>0</maxCatCount>
    <featSize>1</featSize>
    <mode>BASIC</mode></featureParams>
  <stageNum>6</stageNum>
  <stages>
    <!-- stage 0 -->
    <_>
      <maxWeakCount>3</maxWeakCount>
      <stageThreshold>-7.4306929111480713e-01</stageThreshold>
      <weakClassifiers>
        <_>
          <internalNodes>
            0 -1 4 -1.1328054219484329e-01</internalNodes>
          <leafValues>
            6.8000000715255737e-01 -8.9629632234573364e-01</leafValues></_>
        <_>
          <internalNodes>
            0 -1 16 3.6596473306417465e-02</internalNodes>
          <leafValues>
            -7.1357566118240356e-01 8.1937628984451294e-01</leafValues></_>
        <_>
          <internalNodes>
            0 -1 11 4.9037393182516098e-02</internalNodes>
          <leafValues>
            -6.6614931821823120e-01 8.8441818952560425e-01</leafValues></_></weakClassifiers></_>
    <!-- stage 1 -->
    <_>
      <maxWeakCount>4</maxWeakCount>
      <stageThreshold>-2.4581509828567505e-01</stageThreshold>
      <weakClassifiers>
        <_>
          <internalNodes>
            0 -1 10 1.0348605364561081e-01</internalNodes>
          <leafValues>
            -6.9135802984237671e-01 8.7500000000000000e-01</leafValues></_>
        <_>
          <internalNodes>
            0 -1 8 9.2011824017390609e-04</internalNodes>
          <leafValues>
            -8.5797578096389771e-01 4.8439848423004150e-01</leafValues></_>
        <_>
          <internalNodes>
            0 -1 20 -1.0013647377490997e-02</internalNodes>
          <leafValues>
            6.5541154146194458e-01 -5.2359199523925781e-01</leafValues></_>
        <_>
          <internalNodes>
            0 -1 24 1.1888916196767241e-04</internalNodes>
          <leafValues>
            -5.9039866924285889e-01 6.4810717105865479e-01</leafValues></_></weakClassifiers></_>
    <!-- stage 2 -->
    <_>
      <maxWeakCount>5</maxWeakCount>
      <stageThreshold>-3.5063949227333069e-01</stageThreshold>
      <weakClassifiers>
        <_>
          <internalNodes>
            0 -1 1 -1.1450830101966858e-01</internalNodes>
          <leafValues>
            8.0000001192092896e-01 -6.8750000000000000e-01</leafValues></_>
        <_>
          <internalNodes>
            0 -1 6 -2.0451027899980545e-02</internalNodes>
          <leafValues>
            6.4968734979629517e-01 -5.4407286643981934e-01</leafValues></_>
        <_>
          <internalNodes>
            0 -1 23 -1.3544048415496945e-03</internalNodes>
          <leafValues>
            6.3419348001480103e-01 -4.7092226147651672e-01</leafValues></_>
        <_>
          <internalNodes>
            0 -1 14 8.6278185248374939e-02</internalNodes>
          <leafValues>
            -2.8254294395446777e-01 8.5702759027481079e-01</leafValues></_>
        <_>
          <internalNodes>
            0 -1 26 -6.8031891714781523e-05</internalNodes>
          <leafValues>
            5.2928280830383301e-01 -5.0783306360244751e-01</leafValues></_></weakClassifiers></_>
    <!-- stage 3 -->
    <_>
      <maxWeakCount>5</maxWeakCount>
      <stageThreshold>-1.0033172369003296e+00</stageThreshold>
      <weakClassifiers>
        <_>
          <internalNodes>
            0 -1 15 9.3816310167312622e-02</internalNodes>
          <leafValues>
            -6.1490684747695923e-01 5.9183675050735474e-01</leafValues></_>
        <_>
          <internalNodes>
            0 -1 18 -4.8903524875640869e-03</internalNodes>
          <leafValues>
            7.9619097709655762e-01 -3.9716228842735291e-01</leafValues></_>
        <_>
          <internalNodes>
            0 -1 22 -6.7080974578857422e-02</internalNodes>
          <leafValues>
            3.1610769033432007e-01 -9.4802552461624146e-01</leafValues></_>
        <_>
          <internalNodes>
            0 -1 5 1.1987494304776192e-02</internalNodes>
          <leafValues>
            -5.4644191265106201e-01 5.5505001544952393e-01</leafValues></_>
        <_>
          <internalNodes>
            0 -1 2 -6.7954093217849731e-02</internalNodes>
          <leafValues>
            -9.6406894922256470e-01 2.3908612132072449e-01</leafValues></_></weakClassifiers></_>
    <!-- stage 4 -->
    <_>
      <maxWeakCount>6</maxWeakCount>
      <stageThreshold>-3.6871045827865601e-01</stageThreshold>
      <weakClassifiers>
        <_>
          <internalNodes>
            0 -1 17 -1.0328756272792816e-01</internalNodes>
          <leafValues>
            8.5000002384185791e-01 -6.1176472902297974e-01</leafValues></_>
        <_>
          <internalNodes>
            0 -1 19 -9.6183065325021744e-03</internalNodes>
          <leafValues>
            7.8665214776992798e-01 -3.6240085959434509e-01</leafValues></_>
        <_>
          <internalNodes>
            0 -1 3 -3.8481256924569607e-03</internalNodes>
          <leafValues>
            2.9167222976684570e-01 -1.</leafValues></_>
        <_>
          <internalNodes>
            0 -1 13 8.2268938422203064e-03</internalNodes>
          <leafValues>
            -4.1280171275138855e-01 5.5500119924545288e-01</leafValues></_>
        <_>
          <internalNodes>
            0 -1 9 -1.5764927957206964e-04</internalNodes>
          <leafValues>
            4.5580911636352539e-01 -6.5853714942932129e-01</leafValues></_>
        <_>
          <internalNodes>
            0 -1 25 2.5259854737669230e-04</internalNodes>
          <leafValues>
            4.1731879115104675e-01 -6.8432575464248657e-01</leafValues></_></weakClassifiers></_>
    <!-- stage 5 -->
    <_>
      <maxWeakCount>6</maxWeakCount>
      <stageThreshold>-9.3244767189025879e-01</stageThreshold>
      <weakClassifiers>
        <_>
          <internalNodes>
            0 -1 0 1.0535574704408646e-01</internalNodes>
          <leafValues>
            -6.0946744680404663e-01 8.0487805604934692e-01</leafValues></_>
        <_>
          <internalNodes>
            0 -1 28 -2.0055286586284637e-02</internalNodes>
          <leafValues>
            -3.9364555478096008e-01 5.7707595825195313e-01</leafValues></_>
        <_>
          <internalNodes>
            0 -1 21 9.4115333631634712e-03</internalNodes>
          <leafValues>
            -2.9845923185348511e-01 8.6142128705978394e-01</leafValues></_>
        <_>
          <internalNodes>
            0 -1 27 6.5087014809250832e-04</internalNodes>
          <leafValues>
            3.3186590671539307e-01 -9.1330981254577637e-01</leafValues></_>
        <_>
          <internalNodes>
            0 -1 7 1.1192498495802283e-03</internalNodes>
          <leafValues>
            -4.2718794941902161e-01 5.5178487300872803e-01</leafValues></_>
        <_>
          <internalNodes>
            0 -1 12 3.4877392463386059e-03</internalNodes>
          <leafValues>
            -5.1452618837356567e-01 6.6099685430526733e-01</leafValues></_></weakClassifiers></_></stages>
  <features>
    <_>
      <rects>
        <_>
          1 5 14 8 -1.</_>
        <_>
          1 5 7 4 2.</_>
        <_>
          8 9 7 4 2.</_></rects>
      <tilted>0</tilted></_>
    <_>
      <rects>
        <_>
          1 11 14 12 -1.</_>
        <_>
          1 11 7 6 2.</_>
        <_>
          8 17 7 6 2.</_></rects>
      <tilted>0</tilted></_>
    <_>
      <rects>
        <_>
          3 0 14 3 -1.</_>
        <_>
          3 1 14 1 2.</_></rects>
      <tilted>0</tilted></_>
    <_>
      <rects>
        <_>
          4 3 6 1 -1.</_>
        <_>
          6 3 2 1 2.</_></rects>
      <tilted>0</tilted></_>
    <_>
      <rects>
        <_>
          4 10 15 6 -1.</_>
        <_>
          4 12 15 2 2.</_></rects>
      <tilted>0</tilted></_>
    <_>
      <rects>
        <_>
          4 13 6 3 -1.</_>
        <_>
          7 13 3 3 2.</_></rects>
      <tilted>0</tilted></_>
    <_>
      <rects>
        <_>
          5 2 8 10 -1.</_>
        <_>
          9 2 4 10 2.</_></rects>
      <tilted>0</tilted></_>
    <_>
      <rects>
        <_>
          6 8 4 2 -1.</_>
        <_>
          6 9 4 1 2.</_></rects>
      <tilted>0</tilted></_>
    <_>
      <rects>
        <_>
          6 11 2 7 -1.</_>
        <_>
          7 11 1 7 2.</_></rects>
      <tilted>0</tilted></_>
    <_>
      <rects>
        <_>
          6 20 4 2 -1.</_>
        <_>
          6 21 4 1 2.</_></rects>
      <tilted>0</tilted></_>
    <_>
      <rects>
        <_>
          7 2 10 12 -1.</_>
        <_>
          7 8 10 6 2.</_></rects>
      <tilted>0</tilted></_>
    <_>
      <rects>
        <_>
          8 1 6 16 -1.</_>
        <_>
          8 9 6 8 2.</_></rects>
      <tilted>0</tilted></_>
    <_>
      <rects>
        <_>
          8 4 3 4 -1.</_>
        <_>
          8 6 3 2 2.</_></rects>
      <tilted>0</tilted></_>
    <_>
      <rects>
        <_>
          8 7 4 4 -1.</_>
        <_>
          8 9 4 2 2.</_></rects>
      <tilted>0</tilted></_>
    <_>
      <rects>
        <_>
          11 12 12 10 -1.</_>
        <_>
          11 12 6 5 2.</_>
        <_>
          17 17 6 5 2.</_></rects>
      <tilted>0</tilted></_>
    <_>
      <rects>
        <_>
          12 12 10 10 -1.</_>
        <_>
          12 12 5 5 2.</_>
        <_>
          17 17 5 5 2.</_></rects>
      <tilted>0</tilted></_>
    <_>
      <rects>
        <_>
          12 14 12 10 -1.</_>
        <_>
          12 14 6 5 2.</_>
        <_>
          18 19 6 5 2.</_></rects>
      <tilted>0</tilted></_>
    <_>
      <rects>
        <_>
          13 3 8 14 -1.</_>
        <_>
          13 3 4 7 2.</_>
        <_>
          17 10 4 7 2.</_></rects>
      <tilted>0</tilted></_>
    <_>
      <rects>
        <_>
          15 7 4 3 -1.</_>
        <_>
          17 7 2 3 2.</_></rects>
      <tilted>0</tilted></_>
    <_>
      <rects>
        <_>
          15 7 3 6 -1.</_>
        <_>
          15 10 3 3 2.</_></rects>
      <tilted>0</tilted></_>
    <_>
      <rects>
        <_>
          15 12 2 12 -1.</_>
        <_>
          15 18 2 6 2.</_></rects>
      <tilted>0</tilted></_>
    <_>
      <rects>
        <_>
          16 5 8 2 -1.</_>
        <_>
          20 5 4 2 2.</_></rects>
      <tilted>0</tilted></_>
    <_>
      <rects>
        <_>
          17 0 3 23 -1.</_>
        <_>
          18 0 1 23 2.</_></rects>
      <tilted>0</tilted></_>
    <_>
      <rects>
        <_>
          17 10 4 1 -1.</_>
        <_>
          19 10 2 1 2.</_></rects>
      <tilted>0</tilted></_>
    <_>
      <rects>
        <_>
          20 10 2 7 -1.</_>
        <_>
          21 10 1 7 2.</_></rects>
      <tilted>0</tilted></_>
    <_>
      <rects>
        <_>
          21 12 2 8 -1.</_>
        <_>
          21 12 1 4 2.</_>
        <_>
          22 16 1 4 2.</_></rects>
      <tilted>0</tilted></_>
    <_>
      <rects>
        <_>
          21 15 1 2 -1.</_>
        <_>
          21 16 1 1 2.</_></rects>
      <tilted>0</tilted></_>
    <_>
      <rects>
        <_>
          22 2 2 3 -1.</_>
        <_>
          23 2 1 3 2.</_></rects>
      <tilted>0</tilted></_>
    <_>
      <rects>
        <_>
          23 0 1 21 -1.</_>
        <_>
          23 7 1 7 2.</_></rects>
      <tilted>0</tilted></_></features></cascade>
</opencv_storage>
