<?xml version="1.0"?>
<opencv_storage>
<stage3>
  <maxWeakCount>5</maxWeakCount>
  <stageThreshold>-1.0033172369003296e+00</stageThreshold>
  <weakClassifiers>
    <_>
      <internalNodes>
        0 -1 126526 9.3816310167312622e-02</internalNodes>
      <leafValues>
        -6.1490684747695923e-01 5.9183675050735474e-01</leafValues></_>
    <_>
      <internalNodes>
        0 -1 141689 -4.8903524875640869e-03</internalNodes>
      <leafValues>
        7.9619097709655762e-01 -3.9716228842735291e-01</leafValues></_>
    <_>
      <internalNodes>
        0 -1 148377 -6.7080974578857422e-02</internalNodes>
      <leafValues>
        3.1610769033432007e-01 -9.4802552461624146e-01</leafValues></_>
    <_>
      <internalNodes>
        0 -1 58200 1.1987494304776192e-02</internalNodes>
      <leafValues>
        -5.4644191265106201e-01 5.5505001544952393e-01</leafValues></_>
    <_>
      <internalNodes>
        0 -1 38769 -6.7954093217849731e-02</internalNodes>
      <leafValues>
        -9.6406894922256470e-01 2.3908612132072449e-01</leafValues></_></weakClassifiers></stage3>
</opencv_storage>
