<?xml version="1.0"?>
<opencv_storage>
<stage4>
  <maxWeakCount>13</maxWeakCount>
  <stageThreshold>-1.1485981941223145e+00</stageThreshold>
  <weakClassifiers>
    <_>
      <internalNodes>
        0 -1 158356 5.2349846810102463e-02</internalNodes>
      <leafValues>
        -5.4757630825042725e-01 8.2524269819259644e-01</leafValues></_>
    <_>
      <internalNodes>
        0 -1 3461 -1.0842445492744446e-01</internalNodes>
      <leafValues>
        6.5738892555236816e-01 -2.5276768207550049e-01</leafValues></_>
    <_>
      <internalNodes>
        0 -1 4406 7.5482577085494995e-02</internalNodes>
      <leafValues>
        -2.5625470280647278e-01 7.0922887325286865e-01</leafValues></_>
    <_>
      <internalNodes>
        0 -1 12803 7.4391230940818787e-02</internalNodes>
      <leafValues>
        -2.3035886883735657e-01 6.0883742570877075e-01</leafValues></_>
    <_>
      <internalNodes>
        0 -1 126363 -1.0938681662082672e-03</internalNodes>
      <leafValues>
        -7.0864492654800415e-01 2.1637406945228577e-01</leafValues></_>
    <_>
      <internalNodes>
        0 -1 112585 3.7673416081815958e-03</internalNodes>
      <leafValues>
        1.9747239351272583e-01 -7.3876458406448364e-01</leafValues></_>
    <_>
      <internalNodes>
        0 -1 81931 -3.2567456364631653e-02</internalNodes>
      <leafValues>
        -4.9903434514999390e-01 2.1760466694831848e-01</leafValues></_>
    <_>
      <internalNodes>
        0 -1 152337 -3.4720823168754578e-02</internalNodes>
      <leafValues>
        7.0783948898315430e-01 -1.6113062202930450e-01</leafValues></_>
    <_>
      <internalNodes>
        0 -1 70654 -4.2624466121196747e-02</internalNodes>
      <leafValues>
        -6.6301268339157104e-01 2.0257622003555298e-01</leafValues></_>
    <_>
      <internalNodes>
        0 -1 161186 -6.0235727578401566e-03</internalNodes>
      <leafValues>
        2.1440768241882324e-01 -5.2509957551956177e-01</leafValues></_>
    <_>
      <internalNodes>
        0 -1 95640 6.8045104853808880e-04</internalNodes>
      <leafValues>
        1.7082959413528442e-01 -6.8969434499740601e-01</leafValues></_>
    <_>
      <internalNodes>
        0 -1 119595 -2.1278925123624504e-04</internalNodes>
      <leafValues>
        -6.4749830961227417e-01 1.4521908760070801e-01</leafValues></_>
    <_>
      <internalNodes>
        0 -1 106023 1.7656128853559494e-02</internalNodes>
      <leafValues>
        -2.5983923673629761e-01 4.3798440694808960e-01</leafValues></_></weakClassifiers></stage4>
</opencv_storage>
