<?xml version="1.0"?>
<opencv_storage>
<stage1>
  <maxWeakCount>6</maxWeakCount>
  <stageThreshold>-9.9724310636520386e-01</stageThreshold>
  <weakClassifiers>
    <_>
      <internalNodes>
        0 -1 38894 -1.3937151432037354e-01</internalNodes>
      <leafValues>
        9.1304349899291992e-01 -5.9633028507232666e-01</leafValues></_>
    <_>
      <internalNodes>
        0 -1 139088 -4.6176657080650330e-02</internalNodes>
      <leafValues>
        -9.1843199729919434e-01 2.9844263195991516e-01</leafValues></_>
    <_>
      <internalNodes>
        0 -1 59345 2.4628736078739166e-02</internalNodes>
      <leafValues>
        -3.6219173669815063e-01 7.6110363006591797e-01</leafValues></_>
    <_>
      <internalNodes>
        0 -1 50288 6.6595949232578278e-02</internalNodes>
      <leafValues>
        -3.5796800255775452e-01 8.7539374828338623e-01</leafValues></_>
    <_>
      <internalNodes>
        0 -1 123604 -6.9413542747497559e-02</internalNodes>
      <leafValues>
        3.2357352972030640e-01 -9.2967164516448975e-01</leafValues></_>
    <_>
      <internalNodes>
        0 -1 145556 7.7246069908142090e-02</internalNodes>
      <leafValues>
        -3.0276930332183838e-01 7.7445495128631592e-01</leafValues></_></weakClassifiers></stage1>
</opencv_storage>
