<?xml version="1.0"?>
<opencv_storage>
<stage4>
  <maxWeakCount>6</maxWeakCount>
  <stageThreshold>-3.6871045827865601e-01</stageThreshold>
  <weakClassifiers>
    <_>
      <internalNodes>
        0 -1 129612 -1.0328756272792816e-01</internalNodes>
      <leafValues>
        8.5000002384185791e-01 -6.1176472902297974e-01</leafValues></_>
    <_>
      <internalNodes>
        0 -1 141745 -9.6183065325021744e-03</internalNodes>
      <leafValues>
        7.8665214776992798e-01 -3.6240085959434509e-01</leafValues></_>
    <_>
      <internalNodes>
        0 -1 52111 -3.8481256924569607e-03</internalNodes>
      <leafValues>
        2.9167222976684570e-01 -1.</leafValues></_>
    <_>
      <internalNodes>
        0 -1 94386 8.2268938422203064e-03</internalNodes>
      <leafValues>
        -4.1280171275138855e-01 5.5500119924545288e-01</leafValues></_>
    <_>
      <internalNodes>
        0 -1 80506 -1.5764927957206964e-04</internalNodes>
      <leafValues>
        4.5580911636352539e-01 -6.5853714942932129e-01</leafValues></_>
    <_>
      <internalNodes>
        0 -1 160837 2.5259854737669230e-04</internalNodes>
      <leafValues>
        4.1731879115104675e-01 -6.8432575464248657e-01</leafValues></_></weakClassifiers></stage4>
</opencv_storage>
