<?xml version="1.0"?>
<opencv_storage>
<stage5>
  <maxWeakCount>10</maxWeakCount>
  <stageThreshold>-8.3169978857040405e-01</stageThreshold>
  <weakClassifiers>
    <_>
      <internalNodes>
        0 -1 158208 3.4151237457990646e-02</internalNodes>
      <leafValues>
        -5.6809335947036743e-01 4.9315068125724792e-01</leafValues></_>
    <_>
      <internalNodes>
        0 -1 139623 -2.8631037473678589e-01</internalNodes>
      <leafValues>
        1.7994280159473419e-01 -7.4597465991973877e-01</leafValues></_>
    <_>
      <internalNodes>
        0 -1 8956 -1.5664212405681610e-02</internalNodes>
      <leafValues>
        5.4814922809600830e-01 -3.2676219940185547e-01</leafValues></_>
    <_>
      <internalNodes>
        0 -1 6082 9.8877782002091408e-03</internalNodes>
      <leafValues>
        -2.5430303812026978e-01 6.6058987379074097e-01</leafValues></_>
    <_>
      <internalNodes>
        0 -1 113706 2.4527698755264282e-02</internalNodes>
      <leafValues>
        -2.3808418214321136e-01 6.0486775636672974e-01</leafValues></_>
    <_>
      <internalNodes>
        0 -1 50230 1.0026591271162033e-01</internalNodes>
      <leafValues>
        -1.9090330600738525e-01 6.8518608808517456e-01</leafValues></_>
    <_>
      <internalNodes>
        0 -1 1526 -5.0579581409692764e-02</internalNodes>
      <leafValues>
        5.0463020801544189e-01 -2.5871461629867554e-01</leafValues></_>
    <_>
      <internalNodes>
        0 -1 89281 8.3548278780654073e-05</internalNodes>
      <leafValues>
        -3.6658906936645508e-01 3.6386796832084656e-01</leafValues></_>
    <_>
      <internalNodes>
        0 -1 157235 8.9930053800344467e-03</internalNodes>
      <leafValues>
        -1.5845155715942383e-01 6.3583654165267944e-01</leafValues></_>
    <_>
      <internalNodes>
        0 -1 140146 8.7457953486591578e-04</internalNodes>
      <leafValues>
        -1.4814528822898865e-01 6.1980170011520386e-01</leafValues></_></weakClassifiers></stage5>
</opencv_storage>
