<?xml version="1.0"?>
<opencv_storage>
<stage8>
  <maxWeakCount>16</maxWeakCount>
  <stageThreshold>-1.0048258304595947e+00</stageThreshold>
  <weakClassifiers>
    <_>
      <internalNodes>
        0 -1 38832 -9.1744527220726013e-02</internalNodes>
      <leafValues>
        4.5185184478759766e-01 -5.3523808717727661e-01</leafValues></_>
    <_>
      <internalNodes>
        0 -1 9558 -6.3301593065261841e-02</internalNodes>
      <leafValues>
        6.5666252374649048e-01 -1.9382868707180023e-01</leafValues></_>
    <_>
      <internalNodes>
        0 -1 105615 -7.9542145133018494e-02</internalNodes>
      <leafValues>
        6.1619645357131958e-01 -1.9743303954601288e-01</leafValues></_>
    <_>
      <internalNodes>
        0 -1 27913 -1.7518627643585205e-01</internalNodes>
      <leafValues>
        -5.7315784692764282e-01 2.1717314422130585e-01</leafValues></_>
    <_>
      <internalNodes>
        0 -1 13375 -1.3016352429986000e-02</internalNodes>
      <leafValues>
        3.0485051870346069e-01 -4.9607616662979126e-01</leafValues></_>
    <_>
      <internalNodes>
        0 -1 94396 -6.7616254091262817e-03</internalNodes>
      <leafValues>
        -7.4048936367034912e-01 5.1607321947813034e-02</leafValues></_>
    <_>
      <internalNodes>
        0 -1 128603 9.5507148653268814e-03</internalNodes>
      <leafValues>
        -1.5266364812850952e-01 6.1421555280685425e-01</leafValues></_>
    <_>
      <internalNodes>
        0 -1 154728 2.1755842491984367e-02</internalNodes>
      <leafValues>
        -2.6871517300605774e-01 4.4664734601974487e-01</leafValues></_>
    <_>
      <internalNodes>
        0 -1 61184 -7.5115123763680458e-05</internalNodes>
      <leafValues>
        -3.9549979567527771e-01 3.4340578317642212e-01</leafValues></_>
    <_>
      <internalNodes>
        0 -1 120128 2.3288591182790697e-04</internalNodes>
      <leafValues>
        2.0339241623878479e-01 -5.8997166156768799e-01</leafValues></_>
    <_>
      <internalNodes>
        0 -1 150870 -5.9814401902258396e-04</internalNodes>
      <leafValues>
        -7.5133806467056274e-01 1.2487976998090744e-01</leafValues></_>
    <_>
      <internalNodes>
        0 -1 137408 2.7665589004755020e-04</internalNodes>
      <leafValues>
        1.3317365944385529e-01 -5.6584715843200684e-01</leafValues></_>
    <_>
      <internalNodes>
        0 -1 133500 -1.0427966713905334e-01</internalNodes>
      <leafValues>
        1.4592929184436798e-01 -5.6001096963882446e-01</leafValues></_>
    <_>
      <internalNodes>
        0 -1 84998 -3.3156883716583252e-01</internalNodes>
      <leafValues>
        -2.0061039924621582e-01 4.6257898211479187e-01</leafValues></_>
    <_>
      <internalNodes>
        0 -1 69572 -1.6160632949322462e-03</internalNodes>
      <leafValues>
        4.4616776704788208e-01 -2.3507750034332275e-01</leafValues></_>
    <_>
      <internalNodes>
        0 -1 4 1.5365853323601186e-04</internalNodes>
      <leafValues>
        1.6908843815326691e-01 -5.6079697608947754e-01</leafValues></_></weakClassifiers></stage8>
</opencv_storage>
